<?xml version="1.0"?>
<opencv_storage>
<stage1>
  <maxWeakCount>15</maxWeakCount>
  <stageThreshold>-1.6350673437118530e+00</stageThreshold>
  <weakClassifiers>
    <_>
      <internalNodes>
        0 -1 136065 1.4034247398376465e-01</internalNodes>
      <leafValues>
        -8.3312368392944336e-01 -1.8633539974689484e-01</leafValues></_>
    <_>
      <internalNodes>
        0 -1 89397 4.0335893630981445e-02</internalNodes>
      <leafValues>
        -4.5293036103248596e-01 2.4513807892799377e-01</leafValues></_>
    <_>
      <internalNodes>
        0 -1 34497 -3.0067613348364830e-02</internalNodes>
      <leafValues>
        4.9210092425346375e-01 -1.9083578884601593e-01</leafValues></_>
    <_>
      <internalNodes>
        0 -1 116557 2.5576227344572544e-03</internalNodes>
      <leafValues>
        -1.6170485317707062e-01 3.8427126407623291e-01</leafValues></_>
    <_>
      <internalNodes>
        0 -1 7499 -1.5532610937952995e-02</internalNodes>
      <leafValues>
        4.4358170032501221e-01 -1.4088663458824158e-01</leafValues></_>
    <_>
      <internalNodes>
        0 -1 50235 -3.8733714818954468e-01</internalNodes>
      <leafValues>
        6.6603189706802368e-01 -8.6744531989097595e-02</leafValues></_>
    <_>
      <internalNodes>
        0 -1 99969 2.4063552264124155e-03</internalNodes>
      <leafValues>
        -1.4874984323978424e-01 4.2167764902114868e-01</leafValues></_>
    <_>
      <internalNodes>
        0 -1 99979 -3.5328022204339504e-03</internalNodes>
      <leafValues>
        4.4698476791381836e-01 -1.5637537837028503e-01</leafValues></_>
    <_>
      <internalNodes>
        0 -1 91860 6.6031351685523987e-02</internalNodes>
      <leafValues>
        -1.2289112061262131e-01 4.5667690038681030e-01</leafValues></_>
    <_>
      <internalNodes>
        0 -1 115966 -2.7746053412556648e-02</internalNodes>
      <leafValues>
        3.6780703067779541e-01 -1.6000987589359283e-01</leafValues></_>
    <_>
      <internalNodes>
        0 -1 64918 -1.1691414329106919e-05</internalNodes>
      <leafValues>
        2.9674357175827026e-01 -1.9601637125015259e-01</leafValues></_>
    <_>
      <internalNodes>
        0 -1 1115 -3.1752983340993524e-04</internalNodes>
      <leafValues>
        -3.0172869563102722e-01 1.9706873595714569e-01</leafValues></_>
    <_>
      <internalNodes>
        0 -1 816 7.5057975947856903e-02</internalNodes>
      <leafValues>
        6.4365118741989136e-02 -7.5519680976867676e-01</leafValues></_>
    <_>
      <internalNodes>
        0 -1 114009 4.1670505888760090e-03</internalNodes>
      <leafValues>
        -1.9202393293380737e-01 2.6947277784347534e-01</leafValues></_>
    <_>
      <internalNodes>
        0 -1 118745 3.8145013153553009e-02</internalNodes>
      <leafValues>
        -9.5273576676845551e-02 5.9379059076309204e-01</leafValues></_></weakClassifiers></stage1>
</opencv_storage>
