<?xml version="1.0"?>
<opencv_storage>
<stage6>
  <maxWeakCount>28</maxWeakCount>
  <stageThreshold>-1.7162235975265503e+00</stageThreshold>
  <weakClassifiers>
    <_>
      <internalNodes>
        0 -1 14391 -5.5301457643508911e-01</internalNodes>
      <leafValues>
        -2.6865673065185547e-01 -8.0975812673568726e-01</leafValues></_>
    <_>
      <internalNodes>
        0 -1 89666 3.4092400223016739e-02</internalNodes>
      <leafValues>
        -3.7971496582031250e-01 1.9996120035648346e-01</leafValues></_>
    <_>
      <internalNodes>
        0 -1 159705 -3.6389697925187647e-05</internalNodes>
      <leafValues>
        -2.8533706068992615e-01 1.4087495207786560e-01</leafValues></_>
    <_>
      <internalNodes>
        0 -1 121268 -7.3310192674398422e-03</internalNodes>
      <leafValues>
        -3.4296524524688721e-01 1.5464431047439575e-01</leafValues></_>
    <_>
      <internalNodes>
        0 -1 114408 2.2898288443684578e-03</internalNodes>
      <leafValues>
        1.7748543620109558e-01 -2.7749580144882202e-01</leafValues></_>
    <_>
      <internalNodes>
        0 -1 162201 -6.6907228901982307e-03</internalNodes>
      <leafValues>
        -3.2536458969116211e-01 1.1624655127525330e-01</leafValues></_>
    <_>
      <internalNodes>
        0 -1 162137 7.6311279553920031e-04</internalNodes>
      <leafValues>
        1.7519374191761017e-01 -3.0119818449020386e-01</leafValues></_>
    <_>
      <internalNodes>
        0 -1 112709 -7.9578842269256711e-04</internalNodes>
      <leafValues>
        -2.4709174036979675e-01 1.2367346882820129e-01</leafValues></_>
    <_>
      <internalNodes>
        0 -1 38195 -5.7077072560787201e-02</internalNodes>
      <leafValues>
        -5.8287990093231201e-01 6.2474526464939117e-02</leafValues></_>
    <_>
      <internalNodes>
        0 -1 25795 6.9294879212975502e-03</internalNodes>
      <leafValues>
        1.0223422199487686e-01 -3.4903889894485474e-01</leafValues></_>
    <_>
      <internalNodes>
        0 -1 134631 -6.8145396653562784e-04</internalNodes>
      <leafValues>
        3.3270737528800964e-01 -1.0809604078531265e-01</leafValues></_>
    <_>
      <internalNodes>
        0 -1 162109 -1.2911956757307053e-02</internalNodes>
      <leafValues>
        -5.4984581470489502e-01 6.7252330482006073e-02</leafValues></_>
    <_>
      <internalNodes>
        0 -1 49464 -4.7257444821298122e-03</internalNodes>
      <leafValues>
        -3.9508828520774841e-01 7.0112496614456177e-02</leafValues></_>
    <_>
      <internalNodes>
        0 -1 153798 1.8101211171597242e-03</internalNodes>
      <leafValues>
        -1.3645410537719727e-01 2.2339734435081482e-01</leafValues></_>
    <_>
      <internalNodes>
        0 -1 17374 6.0204043984413147e-03</internalNodes>
      <leafValues>
        3.1450789421796799e-02 -1.</leafValues></_>
    <_>
      <internalNodes>
        0 -1 109642 -2.1797004155814648e-03</internalNodes>
      <leafValues>
        2.2881820797920227e-01 -1.3987533748149872e-01</leafValues></_>
    <_>
      <internalNodes>
        0 -1 69608 -4.5783407986164093e-03</internalNodes>
      <leafValues>
        2.0878973603248596e-01 -1.4883391559123993e-01</leafValues></_>
    <_>
      <internalNodes>
        0 -1 162312 2.5575752370059490e-03</internalNodes>
      <leafValues>
        3.3079016953706741e-02 -8.4441643953323364e-01</leafValues></_>
    <_>
      <internalNodes>
        0 -1 215 -6.9070234894752502e-02</internalNodes>
      <leafValues>
        -6.8893778324127197e-01 3.4265384078025818e-02</leafValues></_>
    <_>
      <internalNodes>
        0 -1 21635 -2.1149294450879097e-02</internalNodes>
      <leafValues>
        4.3094840645790100e-01 -7.9873159527778625e-02</leafValues></_>
    <_>
      <internalNodes>
        0 -1 3234 -3.4818753600120544e-02</internalNodes>
      <leafValues>
        -4.1469982266426086e-01 7.9977937042713165e-02</leafValues></_>
    <_>
      <internalNodes>
        0 -1 103426 -1.4008248690515757e-03</internalNodes>
      <leafValues>
        1.9843909144401550e-01 -1.5357542037963867e-01</leafValues></_>
    <_>
      <internalNodes>
        0 -1 133142 -9.4950624043121934e-04</internalNodes>
      <leafValues>
        -3.3940005302429199e-01 9.2225410044193268e-02</leafValues></_>
    <_>
      <internalNodes>
        0 -1 133775 1.0574189946055412e-03</internalNodes>
      <leafValues>
        -1.6149702668190002e-01 2.0573318004608154e-01</leafValues></_>
    <_>
      <internalNodes>
        0 -1 24294 3.1187968328595161e-02</internalNodes>
      <leafValues>
        -1.3082455098628998e-01 2.4930782616138458e-01</leafValues></_>
    <_>
      <internalNodes>
        0 -1 80480 -7.5510615715757012e-04</internalNodes>
      <leafValues>
        2.8817066550254822e-01 -1.1846590787172318e-01</leafValues></_>
    <_>
      <internalNodes>
        0 -1 13319 -4.2873836355283856e-04</internalNodes>
      <leafValues>
        -2.1711274981498718e-01 1.5185546875000000e-01</leafValues></_>
    <_>
      <internalNodes>
        0 -1 46645 -6.3159191049635410e-03</internalNodes>
      <leafValues>
        1.9477741420269012e-01 -1.7191179096698761e-01</leafValues></_></weakClassifiers></stage6>
</opencv_storage>
