<?xml version="1.0"?>
<opencv_storage>
<stage1>
  <maxWeakCount>13</maxWeakCount>
  <stageThreshold>-1.7004565000534058e+00</stageThreshold>
  <weakClassifiers>
    <_>
      <internalNodes>
        0 -1 41411 -5.6815564632415771e-01</internalNodes>
      <leafValues>
        8.4937238693237305e-01 -6.8161588907241821e-01</leafValues></_>
    <_>
      <internalNodes>
        0 -1 106422 2.6241950690746307e-02</internalNodes>
      <leafValues>
        -4.5315286517143250e-01 4.3409729003906250e-01</leafValues></_>
    <_>
      <internalNodes>
        0 -1 158864 1.5530304983258247e-02</internalNodes>
      <leafValues>
        -1.6042740643024445e-01 5.4378867149353027e-01</leafValues></_>
    <_>
      <internalNodes>
        0 -1 1908 -3.6597990989685059e-01</internalNodes>
      <leafValues>
        -7.0206362009048462e-01 1.2502039968967438e-01</leafValues></_>
    <_>
      <internalNodes>
        0 -1 861 3.5390412807464600e-01</internalNodes>
      <leafValues>
        1.2943834066390991e-01 -8.0229032039642334e-01</leafValues></_>
    <_>
      <internalNodes>
        0 -1 8238 7.4156839400529861e-04</internalNodes>
      <leafValues>
        -2.1144674718379974e-01 4.3322566151618958e-01</leafValues></_>
    <_>
      <internalNodes>
        0 -1 2127 1.4930960536003113e-01</internalNodes>
      <leafValues>
        1.4239582419395447e-01 -6.4079070091247559e-01</leafValues></_>
    <_>
      <internalNodes>
        0 -1 137894 1.4328665565699339e-03</internalNodes>
      <leafValues>
        -2.1381582319736481e-01 3.7495717406272888e-01</leafValues></_>
    <_>
      <internalNodes>
        0 -1 150707 2.0953631028532982e-03</internalNodes>
      <leafValues>
        -1.6001103818416595e-01 4.8156493902206421e-01</leafValues></_>
    <_>
      <internalNodes>
        0 -1 152665 -1.1895920336246490e-01</internalNodes>
      <leafValues>
        -5.7725679874420166e-01 1.3034264743328094e-01</leafValues></_>
    <_>
      <internalNodes>
        0 -1 58521 -1.2956347782164812e-03</internalNodes>
      <leafValues>
        3.4719792008399963e-01 -1.9991226494312286e-01</leafValues></_>
    <_>
      <internalNodes>
        0 -1 125399 -6.8607553839683533e-04</internalNodes>
      <leafValues>
        2.4403907358646393e-01 -2.4807454645633698e-01</leafValues></_>
    <_>
      <internalNodes>
        0 -1 73125 -5.4625272750854492e-03</internalNodes>
      <leafValues>
        4.3384236097335815e-01 -1.5925101935863495e-01</leafValues></_></weakClassifiers></stage1>
</opencv_storage>
