<?xml version="1.0"?>
<opencv_storage>
<stage8>
  <maxWeakCount>34</maxWeakCount>
  <stageThreshold>-1.4463398456573486e+00</stageThreshold>
  <weakClassifiers>
    <_>
      <internalNodes>
        0 -1 52761 -6.1136239767074585e-01</internalNodes>
      <leafValues>
        4.6478873491287231e-01 -6.6759389638900757e-01</leafValues></_>
    <_>
      <internalNodes>
        0 -1 157562 -2.0480743842199445e-04</internalNodes>
      <leafValues>
        -5.0753897428512573e-01 1.1218103766441345e-01</leafValues></_>
    <_>
      <internalNodes>
        0 -1 161019 -2.1670429850928485e-04</internalNodes>
      <leafValues>
        -3.9390698075294495e-01 2.0502695441246033e-01</leafValues></_>
    <_>
      <internalNodes>
        0 -1 13193 -2.2126395197119564e-04</internalNodes>
      <leafValues>
        -3.2433497905731201e-01 1.9444374740123749e-01</leafValues></_>
    <_>
      <internalNodes>
        0 -1 12274 7.2327893576584756e-05</internalNodes>
      <leafValues>
        1.7114305496215820e-01 -3.0482861399650574e-01</leafValues></_>
    <_>
      <internalNodes>
        0 -1 8837 1.4291964471340179e-02</internalNodes>
      <leafValues>
        8.4109373390674591e-02 -5.9142071008682251e-01</leafValues></_>
    <_>
      <internalNodes>
        0 -1 25629 -3.9144215406849980e-05</internalNodes>
      <leafValues>
        -2.8443613648414612e-01 1.4461164176464081e-01</leafValues></_>
    <_>
      <internalNodes>
        0 -1 133178 -7.9924613237380981e-03</internalNodes>
      <leafValues>
        3.3407992124557495e-01 -1.0490198433399200e-01</leafValues></_>
    <_>
      <internalNodes>
        0 -1 132843 -1.1905008926987648e-02</internalNodes>
      <leafValues>
        2.0704580843448639e-01 -1.9838765263557434e-01</leafValues></_>
    <_>
      <internalNodes>
        0 -1 71118 -5.1424466073513031e-04</internalNodes>
      <leafValues>
        -2.7750769257545471e-01 1.2807202339172363e-01</leafValues></_>
    <_>
      <internalNodes>
        0 -1 128335 -1.4108115434646606e-01</internalNodes>
      <leafValues>
        -8.7853360176086426e-01 3.1291890889406204e-02</leafValues></_>
    <_>
      <internalNodes>
        0 -1 105682 -1.8626682460308075e-02</internalNodes>
      <leafValues>
        3.7167510390281677e-01 -1.0119022428989410e-01</leafValues></_>
    <_>
      <internalNodes>
        0 -1 114209 -4.1399532929062843e-03</internalNodes>
      <leafValues>
        4.2597275972366333e-01 -6.3243567943572998e-02</leafValues></_>
    <_>
      <internalNodes>
        0 -1 162101 -3.2161950366571546e-04</internalNodes>
      <leafValues>
        -3.4482139348983765e-01 8.9958012104034424e-02</leafValues></_>
    <_>
      <internalNodes>
        0 -1 54939 3.7146010436117649e-03</internalNodes>
      <leafValues>
        -8.0477960407733917e-02 3.7277328968048096e-01</leafValues></_>
    <_>
      <internalNodes>
        0 -1 12240 -1.3557860802393407e-04</internalNodes>
      <leafValues>
        -2.5843709707260132e-01 1.2690468132495880e-01</leafValues></_>
    <_>
      <internalNodes>
        0 -1 77798 1.5702098608016968e-03</internalNodes>
      <leafValues>
        -8.7106950581073761e-02 3.7205415964126587e-01</leafValues></_>
    <_>
      <internalNodes>
        0 -1 6401 1.5548631548881531e-02</internalNodes>
      <leafValues>
        4.9837756901979446e-02 -5.8802694082260132e-01</leafValues></_>
    <_>
      <internalNodes>
        0 -1 1160 1.3882188126444817e-02</internalNodes>
      <leafValues>
        4.5267600566148758e-02 -5.6254124641418457e-01</leafValues></_>
    <_>
      <internalNodes>
        0 -1 25796 -1.4893244020640850e-02</internalNodes>
      <leafValues>
        -5.2153283357620239e-01 4.8779200762510300e-02</leafValues></_>
    <_>
      <internalNodes>
        0 -1 12825 -1.9364745821803808e-04</internalNodes>
      <leafValues>
        -2.2080782055854797e-01 1.3523031771183014e-01</leafValues></_>
    <_>
      <internalNodes>
        0 -1 147084 -5.7678273878991604e-04</internalNodes>
      <leafValues>
        1.9898456335067749e-01 -1.4681392908096313e-01</leafValues></_>
    <_>
      <internalNodes>
        0 -1 150499 3.4718168899416924e-03</internalNodes>
      <leafValues>
        -9.6123144030570984e-02 3.2325592637062073e-01</leafValues></_>
    <_>
      <internalNodes>
        0 -1 16518 4.2933486838592216e-05</internalNodes>
      <leafValues>
        1.3570216298103333e-01 -2.0953547954559326e-01</leafValues></_>
    <_>
      <internalNodes>
        0 -1 4415 1.8170405179262161e-02</internalNodes>
      <leafValues>
        -8.2787103950977325e-02 4.1798940300941467e-01</leafValues></_>
    <_>
      <internalNodes>
        0 -1 125475 1.6234463546425104e-03</internalNodes>
      <leafValues>
        -1.4718028903007507e-01 1.8908651173114777e-01</leafValues></_>
    <_>
      <internalNodes>
        0 -1 70916 -2.4252045899629593e-02</internalNodes>
      <leafValues>
        3.6697965860366821e-01 -7.5216002762317657e-02</leafValues></_>
    <_>
      <internalNodes>
        0 -1 60413 4.9676797352731228e-03</internalNodes>
      <leafValues>
        -1.1885458230972290e-01 2.3865512013435364e-01</leafValues></_>
    <_>
      <internalNodes>
        0 -1 68138 9.5983017235994339e-03</internalNodes>
      <leafValues>
        -8.1349648535251617e-02 3.7905225157737732e-01</leafValues></_>
    <_>
      <internalNodes>
        0 -1 147982 1.3249998912215233e-02</internalNodes>
      <leafValues>
        -6.4927250146865845e-02 4.4085195660591125e-01</leafValues></_>
    <_>
      <internalNodes>
        0 -1 12800 8.6665502749383450e-04</internalNodes>
      <leafValues>
        1.3254649937152863e-01 -2.1839450299739838e-01</leafValues></_>
    <_>
      <internalNodes>
        0 -1 121728 -2.9916603118181229e-02</internalNodes>
      <leafValues>
        -4.7784867882728577e-01 5.4775144904851913e-02</leafValues></_>
    <_>
      <internalNodes>
        0 -1 11797 9.8054390400648117e-03</internalNodes>
      <leafValues>
        5.0624504685401917e-02 -4.9213153123855591e-01</leafValues></_>
    <_>
      <internalNodes>
        0 -1 140577 1.4058517292141914e-02</internalNodes>
      <leafValues>
        -9.3457251787185669e-02 2.9773792624473572e-01</leafValues></_></weakClassifiers></stage8>
</opencv_storage>
