<?xml version="1.0"?>
<opencv_storage>
<stage9>
  <maxWeakCount>39</maxWeakCount>
  <stageThreshold>-1.6177799701690674e+00</stageThreshold>
  <weakClassifiers>
    <_>
      <internalNodes>
        0 -1 1077 -7.3594391345977783e-01</internalNodes>
      <leafValues>
        8.2248520851135254e-01 -6.4426612854003906e-01</leafValues></_>
    <_>
      <internalNodes>
        0 -1 117735 -1.2523519992828369e-01</internalNodes>
      <leafValues>
        7.8170186281204224e-01 -2.2448803484439850e-01</leafValues></_>
    <_>
      <internalNodes>
        0 -1 13301 -5.9648358728736639e-05</internalNodes>
      <leafValues>
        -3.7954968214035034e-01 2.1607463061809540e-01</leafValues></_>
    <_>
      <internalNodes>
        0 -1 13301 4.4826869270764291e-05</internalNodes>
      <leafValues>
        2.0772700011730194e-01 -3.5137376189231873e-01</leafValues></_>
    <_>
      <internalNodes>
        0 -1 106802 -7.2845257818698883e-05</internalNodes>
      <leafValues>
        -3.4844914078712463e-01 1.1700490117073059e-01</leafValues></_>
    <_>
      <internalNodes>
        0 -1 106802 1.0771383131213952e-05</internalNodes>
      <leafValues>
        2.1282044053077698e-01 -1.7393857240676880e-01</leafValues></_>
    <_>
      <internalNodes>
        0 -1 18733 -2.9426941275596619e-01</internalNodes>
      <leafValues>
        -8.3832633495330811e-01 -3.3559188246726990e-02</leafValues></_>
    <_>
      <internalNodes>
        0 -1 41462 -7.3898720741271973e-01</internalNodes>
      <leafValues>
        7.8491115570068359e-01 -9.4413235783576965e-03</leafValues></_>
    <_>
      <internalNodes>
        0 -1 135425 -1.4061993360519409e-01</internalNodes>
      <leafValues>
        -3.6854985356330872e-01 6.7108839750289917e-02</leafValues></_>
    <_>
      <internalNodes>
        0 -1 25568 4.9140289425849915e-02</internalNodes>
      <leafValues>
        1.3080693781375885e-01 -3.9641535282135010e-01</leafValues></_>
    <_>
      <internalNodes>
        0 -1 134201 -2.3219180107116699e-01</internalNodes>
      <leafValues>
        -7.7465736865997314e-01 -7.1243697311729193e-04</leafValues></_>
    <_>
      <internalNodes>
        0 -1 160342 -5.1931120455265045e-02</internalNodes>
      <leafValues>
        8.2795751094818115e-01 5.8415527455508709e-03</leafValues></_>
    <_>
      <internalNodes>
        0 -1 96587 2.6275692507624626e-02</internalNodes>
      <leafValues>
        2.3020142689347267e-02 -7.7211523056030273e-01</leafValues></_>
    <_>
      <internalNodes>
        0 -1 54475 1.1184617877006531e-01</internalNodes>
      <leafValues>
        3.3923313021659851e-02 -7.4125933647155762e-01</leafValues></_>
    <_>
      <internalNodes>
        0 -1 148297 -6.0066464357078075e-05</internalNodes>
      <leafValues>
        -2.3268122971057892e-01 1.3277822732925415e-01</leafValues></_>
    <_>
      <internalNodes>
        0 -1 59311 1.1526908725500107e-02</internalNodes>
      <leafValues>
        -1.5171995759010315e-01 2.3742352426052094e-01</leafValues></_>
    <_>
      <internalNodes>
        0 -1 159705 -5.8860401622951031e-05</internalNodes>
      <leafValues>
        -2.0536893606185913e-01 1.5571831166744232e-01</leafValues></_>
    <_>
      <internalNodes>
        0 -1 89499 8.2953935489058495e-03</internalNodes>
      <leafValues>
        -1.4645399153232574e-01 2.3308311402797699e-01</leafValues></_>
    <_>
      <internalNodes>
        0 -1 161680 -1.4628825010731816e-04</internalNodes>
      <leafValues>
        -2.1968431770801544e-01 1.3310885429382324e-01</leafValues></_>
    <_>
      <internalNodes>
        0 -1 79017 4.2086825706064701e-03</internalNodes>
      <leafValues>
        -1.0880503803491592e-01 3.3680617809295654e-01</leafValues></_>
    <_>
      <internalNodes>
        0 -1 44542 2.0628498867154121e-02</internalNodes>
      <leafValues>
        1.1395473778247833e-01 -3.2653093338012695e-01</leafValues></_>
    <_>
      <internalNodes>
        0 -1 99114 9.2150046839378774e-05</internalNodes>
      <leafValues>
        1.3429185748100281e-01 -1.8988889455795288e-01</leafValues></_>
    <_>
      <internalNodes>
        0 -1 124324 -1.5807638410478830e-03</internalNodes>
      <leafValues>
        2.7591800689697266e-01 -1.1180901527404785e-01</leafValues></_>
    <_>
      <internalNodes>
        0 -1 59229 -1.1682626791298389e-04</internalNodes>
      <leafValues>
        -1.8271346390247345e-01 1.4789018034934998e-01</leafValues></_>
    <_>
      <internalNodes>
        0 -1 10577 -2.5757178664207458e-03</internalNodes>
      <leafValues>
        2.5976067781448364e-01 -1.0638368129730225e-01</leafValues></_>
    <_>
      <internalNodes>
        0 -1 154925 9.4879698008298874e-03</internalNodes>
      <leafValues>
        4.9074586480855942e-02 -9.0440088510513306e-01</leafValues></_>
    <_>
      <internalNodes>
        0 -1 13311 -2.2057571914047003e-04</internalNodes>
      <leafValues>
        -2.7386230230331421e-01 6.6253252327442169e-02</leafValues></_>
    <_>
      <internalNodes>
        0 -1 8834 2.9700326267629862e-03</internalNodes>
      <leafValues>
        -8.4670379757881165e-02 2.7922305464744568e-01</leafValues></_>
    <_>
      <internalNodes>
        0 -1 99946 4.6904508024454117e-02</internalNodes>
      <leafValues>
        8.2718208432197571e-02 -3.7226790189743042e-01</leafValues></_>
    <_>
      <internalNodes>
        0 -1 143555 2.1999175660312176e-03</internalNodes>
      <leafValues>
        -1.3638296723365784e-01 1.8552599847316742e-01</leafValues></_>
    <_>
      <internalNodes>
        0 -1 157544 -1.0304645002179313e-05</internalNodes>
      <leafValues>
        -1.7865914106369019e-01 1.4843532443046570e-01</leafValues></_>
    <_>
      <internalNodes>
        0 -1 155114 2.1014668047428131e-02</internalNodes>
      <leafValues>
        4.5504592359066010e-02 -5.6216603517532349e-01</leafValues></_>
    <_>
      <internalNodes>
        0 -1 13387 -2.0797776058316231e-02</internalNodes>
      <leafValues>
        -3.4343439340591431e-01 6.7095011472702026e-02</leafValues></_>
    <_>
      <internalNodes>
        0 -1 18764 -2.3875683546066284e-01</internalNodes>
      <leafValues>
        -5.5503696203231812e-01 4.1345987468957901e-02</leafValues></_>
    <_>
      <internalNodes>
        0 -1 162123 -2.2028150851838291e-04</internalNodes>
      <leafValues>
        -2.5814497470855713e-01 1.1564863473176956e-01</leafValues></_>
    <_>
      <internalNodes>
        0 -1 97098 -4.5477889943867922e-04</internalNodes>
      <leafValues>
        2.5043237209320068e-01 -1.0339895635843277e-01</leafValues></_>
    <_>
      <internalNodes>
        0 -1 162326 -4.1139265522360802e-03</internalNodes>
      <leafValues>
        -4.3143862485885620e-01 6.0974873602390289e-02</leafValues></_>
    <_>
      <internalNodes>
        0 -1 3697 -9.1446682810783386e-02</internalNodes>
      <leafValues>
        -9.4107049703598022e-01 2.3783730342984200e-02</leafValues></_>
    <_>
      <internalNodes>
        0 -1 97764 -2.7636534068733454e-03</internalNodes>
      <leafValues>
        -3.6158001422882080e-01 6.1216387897729874e-02</leafValues></_></weakClassifiers></stage9>
</opencv_storage>
